{
    "conv1.weight": {
        "shape": [
            10,
            1,
            5,
            5
        ],
        "values_preview": [
            -0.06599368155002594,
            0.29621800780296326,
            0.1742541790008545,
            0.2706582248210907,
            0.2011123150587082
        ]
    },
    "conv1.bias": {
        "shape": [
            10
        ],
        "values_preview": [
            0.029005423188209534,
            -0.010740970261394978,
            0.21393579244613647,
            0.1334937959909439,
            0.13523274660110474
        ]
    },
    "conv2.weight": {
        "shape": [
            20,
            10,
            5,
            5
        ],
        "values_preview": [
            0.006916611455380917,
            -0.06292355805635452,
            0.021403882652521133,
            -0.037640973925590515,
            0.0549115352332592
        ]
    },
    "conv2.bias": {
        "shape": [
            20
        ],
        "values_preview": [
            0.040249016135931015,
            -0.05207599326968193,
            -0.01689116097986698,
            -0.03770430013537407,
            -0.05251849442720413
        ]
    },
    "fc1.weight": {
        "shape": [
            50,
            320
        ],
        "values_preview": [
            -0.0008081941050477326,
            -0.017341602593660355,
            0.14590367674827576,
            0.0555330291390419,
            -0.030558506026864052
        ]
    },
    "fc1.bias": {
        "shape": [
            50
        ],
        "values_preview": [
            0.05956167355179787,
            0.03622761741280556,
            0.003903677687048912,
            -0.037243716418743134,
            0.018633846193552017
        ]
    },
    "fc2.weight": {
        "shape": [
            10,
            50
        ],
        "values_preview": [
            -0.24201364815235138,
            -0.1796724647283554,
            -0.13420362770557404,
            -0.13386750221252441,
            -0.0022295331582427025
        ]
    },
    "fc2.bias": {
        "shape": [
            10
        ],
        "values_preview": [
            0.10012168437242508,
            0.15374360978603363,
            -0.09783279895782471,
            -0.148817777633667,
            -0.08714518696069717
        ]
    }
}